digraph Tree {
node [shape=box] ;
0 [label="X[90] <= 0.5\ngini = 0.5144\nsamples = 100\nvalue = [54, 44, 2]"] ;
1 [label="gini = 0.0\nsamples = 54\nvalue = [54, 0, 0]"] ;
0 -> 1 [labeldistance=2.5, labelangle=45, headlabel="True"] ;
2 [label="X[229] <= 0.5\ngini = 0.0832\nsamples = 46\nvalue = [0, 44, 2]"] ;
0 -> 2 [labeldistance=2.5, labelangle=-45, headlabel="False"] ;
3 [label="gini = 0.0\nsamples = 2\nvalue = [0, 0, 2]"] ;
2 -> 3 ;
4 [label="gini = 0.0\nsamples = 44\nvalue = [0, 44, 0]"] ;
2 -> 4 ;
}